tree
version=v4
num_class=1
num_tree_per_iteration=1
label_index=0
max_feature_idx=7
objective=regression
feature_names=MinTemp MaxTemp Humidity9am Humidity3pm Pressure9am Pressure3pm Temp9am Temp3pm
feature_infos=[-8.1999999999999993:33.899999999999999] [2.6000000000000001:48.100000000000001] [0:100] [0:100] [980.5:1041] [977.10000000000002:1039.5999999999999] [-3.1000000000000001:40.200000000000003] [1.7:46.700000000000003]
tree_sizes=2776 2921 2927 2915 2928 2895 2932 2928 2922 2929 2925 2953 2905 2933 2923 2915 2904 2922 2936 2936

Tree=0
num_leaves=31
num_cat=0
split_feature=2 4 0 7 2 2 2 4 4 4 4 7 0 0 0 1 1 0 1 0 1 7 0 0 0 1 0 1 0 2
split_gain=2021.16 718.454 332.951 303.866 179.769 166.811 97.4041 92.5948 88.9378 72.6456 52.3424 48.1741 53.2335 47.1777 46.2278 100.427 43.7181 39.2367 38.4901 33.9381 33.5974 26.226 27.3997 25.2675 25.2244 24.6412 52.9711 21.8561 21.6255 21.1728
threshold=78.500000000000014 1017.5500000000001 6.9500000000000011 17.150000000000002 65.500000000000014 87.500000000000014 86.500000000000014 1021.2500000000001 1012.0500000000001 1011.0500000000001 1010.7500000000001 13.15 1.9500000000000002 12.65 11.550000000000002 19.850000000000005 27.450000000000003 5.9500000000000011 16.050000000000004 5.4500000000000011 21.350000000000005 19.650000000000002 14.15 11.65 9.0500000000000025 23.550000000000004 15.350000000000003 22.350000000000005 3.3500000000000001 57.500000000000007
decision_type=2 2 2 2 2 2 2 2 2 2 2 2 2 2 2 2 2 2 2 2 2 2 2 2 2 2 2 2 2 2
left_child=3 5 11 7 20 9 21 18 -6 -2 -7 12 -3 -10 15 -8 -16 -12 28 -9 23 -4 -23 -5 -20 -19 -27 -15 -1 -26
right_child=1 2 6 4 8 10 14 19 13 -11 17 -13 -14 27 16 -17 -18 25 24 -21 -22 22 -24 -25 29 26 -28 -29 -30 -31
leaf_value=0.22265889135275202 0.24314891566201424 0.21681240273613225 0.23162443351339587 0.21633423773804294 0.22747674220343889 0.25269876561424226 0.23893651757486015 0.21577477562439543 0.21604711932740261 0.23247418528789277 0.2330268519659017 0.21672686734715962 0.23081754372201668 0.22686166773050453 0.24538527134514038 0.21787972083556414 0.22417074283324542 0.24857513775717235 0.22148786289421238 0.22411228240259809 0.21439134699835044 0.2174417041971779 0.22884983293531244 0.22361552793723244 0.22248258916294791 0.22180942899981859 0.24609018926440529 0.22044031976759812 0.2355365808620106 0.2329803553509307
leaf_weight=372 2573 1177 2146 3789 4124 2851 2274 2020 6702 4188 683 5184 1602 1608 2136 754 274 2785 1558 3084 30909 945 1188 1738 693 300 894 7533 2637 1565
leaf_count=372 2573 1177 2146 3789 4124 2851 2274 2020 6702 4188 683 5184 1602 1608 2136 754 274 2785 1558 3084 30909 945 1188 1738 693 300 894 7533 2637 1565
internal_value=0.223484 0.23389 0.227154 0.218656 0.217123 0.242234 0.233365 0.225907 0.220936 0.236537 0.247362 0.219574 0.224886 0.219234 0.237806 0.233693 0.242973 0.244098 0.229716 0.220813 0.215033 0.227722 0.223796 0.218624 0.226382 0.245999 0.239989 0.22157 0.233945 0.229758
internal_weight=0 31954 17680 68332 56403 14274 9717 11929 19967 6761 7513 7963 2779 15843 5438 3028 2410 4662 6825 5104 36436 4279 2133 5527 3816 3979 1194 9141 3009 2258
internal_count=100286 31954 17680 68332 56403 14274 9717 11929 19967 6761 7513 7963 2779 15843 5438 3028 2410 4662 6825 5104 36436 4279 2133 5527 3816 3979 1194 9141 3009 2258
is_linear=0
shrinkage=1


Tree=1
num_leaves=31
num_cat=0
split_feature=2 4 3 3 2 7 6 2 2 3 4 4 4 3 4 4 3 7 4 1 5 1 2 4 6 4 1 5 6 4
split_gain=1824.34 654.588 345.325 252.43 168.434 152.591 97.0977 110.937 65.54 60.3223 44.0375 43.9709 43.5361 43.1292 42.0322 38.8042 33.8315 28.5159 30.75 24.6681 23.6215 21.2945 21.0874 17.9143 17.4298 17.4249 16.9001 15.3034 15.287 14.9098
threshold=76.500000000000014 1015.7500000000001 60.500000000000007 43.500000000000007 85.500000000000014 16.350000000000005 9.2500000000000018 86.500000000000014 67.500000000000014 57.500000000000007 1010.6500000000002 1021.7500000000001 1011.9500000000002 78.500000000000014 1021.7500000000001 1023.4500000000002 49.500000000000007 19.850000000000005 1015.9500000000002 21.350000000000005 1019.9500000000002 18.050000000000004 89.500000000000014 1018.2500000000001 24.650000000000002 1010.35 14.450000000000001 1018.0500000000001 7.4500000000000011 1020.85
decision_type=2 2 2 2 2 2 2 2 2 2 2 2 2 2 2 2 2 2 2 2 2 2 2 2 2 2 2 2 2 2
left_child=3 4 14 17 10 11 15 -8 19 25 -2 26 -10 -9 16 20 -3 18 -1 23 29 -12 -11 -7 -23 -6 -5 -18 -24 -4
right_child=1 2 6 5 9 8 7 13 12 22 21 -13 -14 -15 -16 -17 27 -19 -20 -21 -22 24 28 -25 -26 -27 -28 -29 -30 -31
leaf_value=0.0010824468734803895 0.016743598433368895 -0.00347250544238604 0.0078726904956918017 0.012542180678287111 0.020696879117577165 0.0021605479108615664 0.0061096899418624255 0.013424479199348109 0.0054793350905493962 0.020473248619950715 0.015808224263756904 -0.00044672617429055133 -0.0023176721184394525 0.022810677286337185 -0.005240153492930894 -0.0029312222106436087 0.0026549828723986895 -0.0088979323517568796 -0.007230558207871253 -0.0068999028235189955 0.019612674593925475 0.0038669417988067018 0.017183864469817609 -0.0048264269300242087 0.013954228385728976 0.0091354802731252356 0.0057215100406736276 0.011585113827487548 0.028152572654566263 -0.0069952575828541412
leaf_weight=1529 2508 2043 722 1309 540 1420 4027 3026 2278 1574 687 2589 8363 2055 6277 1730 1549 25833 4083 11639 350 2099 346 2592 538 822 2966 695 3877 220
leaf_count=1529 2508 2043 722 1309 540 1420 4027 3026 2278 1574 687 2589 8363 2055 6277 1730 1549 25833 4083 11639 350 2099 346 2592 538 822 2966 695 3877 220
internal_value=0 0.00909904 0.00397542 -0.00498672 0.0180495 -0.00194293 0.0097313 0.0123081 -0.00367606 0.0231881 0.0117416 0.00469568 -0.000648507 0.0172207 -0.00263371 0.00196511 0.00118262 -0.00819614 -0.00496566 -0.00573446 0.00852133 0.00796761 0.0254128 -0.00235347 0.00592495 0.0137193 0.00780999 0.00542078 0.0272539 0.00440035
internal_weight=0 35685 22694 64601 12991 33156 12130 9108 26292 7159 5832 6864 10641 5081 10564 3022 4287 31445 5612 15651 1292 3324 5797 4012 2637 1362 4275 2244 4223 942
internal_count=100286 35685 22694 64601 12991 33156 12130 9108 26292 7159 5832 6864 10641 5081 10564 3022 4287 31445 5612 15651 1292 3324 5797 4012 2637 1362 4275 2244 4223 942
is_linear=0
shrinkage=0.05


Tree=2
num_leaves=31
num_cat=0
split_feature=2 0 3 3 7 2 2 7 0 7 7 0 0 6 0 0 7 1 0 5 5 7 3 1 0 0 7 2 0 5
split_gain=1651.63 581.381 296.133 266.438 150.564 146.817 92.6766 78.1476 73.8586 75.5047 52.0481 64.0644 49.9974 47.6378 47.176 45.4122 38.3306 35.9552 33.7754 29.724 27.2896 25.8613 24.7522 21.3386 19.8221 19.5038 19.3 18.9969 17.9632 17.4921
threshold=79.500000000000014 5.6500000000000012 43.500000000000007 57.500000000000007 15.15 88.500000000000014 69.500000000000014 11.950000000000001 9.6500000000000004 16.450000000000003 19.450000000000003 13.550000000000002 3.4500000000000006 24.550000000000004 9.6500000000000004 1.3500000000000003 15.050000000000002 20.850000000000005 8.7500000000000018 1021.1500000000002 1005.7500000000001 19.750000000000004 83.500000000000014 19.950000000000003 13.250000000000002 8.5500000000000025 15.450000000000001 84.500000000000014 8.5500000000000025 1011.7500000000001
decision_type=2 2 2 2 2 2 2 2 2 2 2 2 2 2 2 2 2 2 2 2 2 2 2 2 2 2 2 2 2 2
left_child=2 7 21 10 12 13 17 15 9 19 18 -12 -4 16 -8 -2 -5 25 26 -7 -16 28 29 -22 -25 -6 -3 -18 -1 -10
right_child=1 3 4 5 6 8 14 -9 22 -11 11 -13 -14 -15 20 -17 27 -19 -20 -21 23 -23 -24 24 -26 -27 -28 -29 -30 -31
leaf_value=-0.0064871259773584466 -0.0040100822757761388 0.014285627769518503 -0.0052866669412314458 0.016874005682295964 -0.0061758951997671506 0.022813458608546014 -0.0054972211400176538 -0.0054703926533366774 0.026840842077900631 -0.0014178628574945881 -0.0042529053302284596 0.008486517668686612 0.0079693579427111139 0.023200402547411875 0.010575442773450482 0.0115201000056586 0.0056352259556466172 -0.0060111835025418916 0.018262106577396141 0.011419798347651625 0.0070496385856982204 -0.008346505722478267 0.028624359480693397 -0.0050883169109455211 0.0016132108684447069 0.00074985107804159191 0.0005486717840720868 0.011894444062634374 -0.00041599851090950453 0.019624630625904034
leaf_weight=4048 731 395 826 1742 1395 1601 2386 5399 1259 571 2201 1789 5123 828 911 1322 2894 14147 936 891 1457 26636 2279 1335 6361 3747 725 2086 1743 2522
leaf_count=4048 731 395 826 1742 1395 1601 2386 5399 1259 571 2201 1789 5123 828 911 1322 2894 14147 936 891 1457 26636 2279 1335 6361 3747 725 2086 1743 2522
internal_value=0 0.00980592 -0.00418499 0.013781 -0.00117087 0.0170416 -0.00253908 -0.002313 0.0213099 0.014982 0.00478923 0.00145908 0.0061288 0.0118841 0.000823929 0.00599036 0.0104901 -0.00470973 0.0112519 0.0187397 0.00232256 -0.00768811 0.0245084 0.00150115 0.000450719 -0.00112907 0.0053934 0.00825706 -0.00465981 0.0220275
internal_weight=0 30171 70115 22719 37688 16673 31739 7452 9123 3063 6046 3990 5949 7550 12450 2053 6722 19289 2056 2492 10064 32427 6060 9153 7696 5142 1120 4980 5791 3781
internal_count=100286 30171 70115 22719 37688 16673 31739 7452 9123 3063 6046 3990 5949 7550 12450 2053 6722 19289 2056 2492 10064 32427 6060 9153 7696 5142 1120 4980 5791 3781
is_linear=0
shrinkage=0.05


Tree=3
num_leaves=31
num_cat=0
split_feature=2 4 3 3 1 2 6 2 4 4 3 2 4 3 4 4 2 4 5 4 1 6 4 1 3 5 4 5 5 4
split_gain=1492.67 554.504 245.892 215.319 134.461 124.279 85.9435 74.7339 72.244 62.5694 58.5698 50.9611 48.7944 29.1062 25.4084 24.5396 23.9729 23.5936 25.4501 21.3545 20.0792 27.1824 19.3594 18.4827 18.3298 17.338 37.5069 19.4132 18.5689 16.5662
threshold=78.500000000000014 1017.5500000000001 43.500000000000007 60.500000000000007 18.050000000000004 89.500000000000014 9.2500000000000018 67.500000000000014 1021.1500000000002 1011.0500000000001 57.500000000000007 88.500000000000014 1012.0500000000001 78.500000000000014 1021.85 1009.7500000000001 45.500000000000007 1023.4500000000002 1019.6500000000002 1013.7500000000001 20.350000000000005 24.650000000000002 1010.35 21.350000000000005 49.500000000000007 1018.85 1015.4500000000002 1014.0500000000001 1016.4500000000002 1012.5500000000001
decision_type=2 2 2 2 2 2 2 2 2 2 2 2 2 2 2 2 2 2 2 2 2 2 2 2 2 2 2 2 2 2
left_child=2 5 15 14 8 9 17 23 25 -2 22 -8 -9 -13 24 16 -1 18 -5 -12 -11 -22 -7 -6 -3 26 27 29 -28 -4
right_child=1 3 4 6 7 10 11 12 -10 20 19 13 -14 -15 -16 -17 -18 -19 -20 -21 21 -23 -24 -25 -26 -27 28 -29 -30 -31
leaf_value=-0.0078698641016520226 0.017723020350975543 -0.0033228331093342251 0.011838328567624311 0.00084694446525201321 -0.0022770426415788065 0.021006311885900009 0.0065719299254834336 0.0055998876942816569 -0.00085591810404673802 0.012739828774017182 0.026226436348144828 0.011625313368334523 -0.0018055970406523566 0.020838393264167598 -0.0048713421471655175 -0.0078278860124434881 0.00025478955480747292 -0.0029331514660049887 0.017449872727905002 0.019598389244199352 0.0041644622393534839 0.017339322693371205 0.0064801444440401867 -0.0062682415677860082 0.0047861613203127804 0.016543537915154338 -0.0046006466974828283 0.022775719191034001 0.0067405802015681471 0.0013300194048587188
leaf_weight=1679 3088 1310 1643 653 3856 331 3151 2898 3696 1859 3250 2154 9569 1424 5442 28469 1977 1700 357 1941 2597 461 747 11708 1489 594 733 313 711 486
leaf_count=1679 3088 1310 1643 653 3856 331 3151 2898 3696 1859 3250 2154 9569 1424 5442 28469 1977 1700 357 1941 2597 461 747 11708 1489 594 733 313 711 486
internal_value=0 0.00894329 -0.00414843 0.00302506 -0.00132319 0.0162737 0.00818087 -0.00296879 0.00431864 0.012145 0.0215457 0.0112086 -8.41649e-05 0.015292 -0.00288025 -0.00733267 -0.00347642 0.000662842 0.0067155 0.0237481 0.00864183 0.0061506 0.0109404 -0.00527942 0.000990955 0.00858766 0.00737155 0.0111489 0.000983572 0.00943953
internal_weight=0 31954 68332 17680 36207 14274 9439 28031 8176 8005 6269 6729 12467 3578 8241 32125 3656 2710 1010 5191 4917 3058 1078 15564 2799 4480 3886 2442 1444 2129
internal_count=100286 31954 68332 17680 36207 14274 9439 28031 8176 8005 6269 6729 12467 3578 8241 32125 3656 2710 1010 5191 4917 3058 1078 15564 2799 4480 3886 2442 1444 2129
is_linear=0
shrinkage=0.05


Tree=4
num_leaves=31
num_cat=0
split_feature=2 4 0 7 3 2 2 2 4 7 0 0 3 2 7 3 4 0 7 4 4 0 7 4 5 4 1 0 0 0
split_gain=1350.15 506.973 273.507 192.339 131.77 125.265 101.409 89.6364 76.8605 58.6738 55.1036 51.8625 44.4767 38.8211 36.6533 35.2901 34.7086 23.9155 27.3151 23.6992 23.2523 22.984 24.1905 22.8874 22.1046 17.8554 17.3802 19.8011 16.2488 16.0345
threshold=76.500000000000014 1015.7500000000001 7.2500000000000009 18.550000000000004 55.500000000000007 85.500000000000014 85.500000000000014 63.500000000000007 1020.9500000000002 13.15 2.7500000000000004 14.050000000000002 47.500000000000007 57.500000000000007 19.450000000000003 80.500000000000014 1009.1500000000002 10.950000000000001 16.450000000000003 1010.7500000000001 1011.5500000000001 5.3500000000000005 14.050000000000002 1012.0500000000001 1019.6500000000002 1024.1500000000003 18.050000000000004 22.250000000000004 6.1500000000000012 4.4500000000000011
decision_type=2 2 2 2 2 2 2 2 2 2 2 2 2 2 2 2 2 2 2 2 2 2 2 2 2 2 2 2 2 2
left_child=3 5 9 8 14 16 -6 -5 13 10 -3 -9 -7 -1 -4 17 -2 18 -8 -14 -13 -10 -23 -15 28 -12 -18 -28 -25 -21
right_child=1 2 4 7 6 12 15 11 21 -11 25 20 19 23 -16 -17 26 -19 -20 29 -22 22 -24 24 -26 -27 27 -29 -30 -31
leaf_value=-0.001532705646170896 0.016105696679272266 -0.0045231421461159535 0.0083487931580224009 -0.0074570878379827512 0.0050172446181767655 0.0065677977402826618 0.013505973069406138 -0.0062337365879481053 -0.0073439357360613718 -0.0058469625548887164 0.013005621653993099 0.0031126243501340542 0.024458881848025769 0.010460189657578292 -0.0034608029132902106 0.021155846691194125 0.014137160017854995 0.016324535555768141 0.00066549183439007769 0.0069809747221214434 -0.0021934812852516536 0.0068621605799826062 -0.0028815732353890816 -0.0028011811243926358 0.015131554151980246 0.0028483720607818314 0.0040665073554007605 0.013788857754874737 0.0046835235692279731 0.019456150511335306
leaf_weight=2405 1771 1540 888 30839 4041 557 1025 7586 2328 6382 964 2762 3106 1936 2526 1811 837 2037 695 280 8178 767 3758 998 392 785 2566 658 2652 3216
leaf_count=2405 1771 1540 888 30839 4041 557 1025 7586 2328 6382 964 2762 3106 1936 2526 1811 837 2037 695 280 8178 767 3758 998 392 785 2566 658 2652 3216
internal_value=0 0.00782761 0.00331856 -0.00429003 0.00804875 0.0157045 0.0110466 -0.00580572 0.000620839 -0.00305114 0.0023739 -0.0030568 0.0201359 0.00383174 -0.000389063 0.0154225 0.0102647 0.0126588 0.00831752 0.0212807 -0.000853859 -0.00330693 -0.00122998 0.0059899 0.00384876 0.00844676 0.00771744 0.00605078 0.00263702 0.018457
internal_weight=0 35685 22694 64601 13023 12991 9609 49365 15236 9671 3289 18526 7159 8383 3414 5568 5832 3757 1720 6602 10940 6853 4525 5978 4042 1749 4061 3224 3650 3496
internal_count=100286 35685 22694 64601 13023 12991 9609 49365 15236 9671 3289 18526 7159 8383 3414 5568 5832 3757 1720 6602 10940 6853 4525 5978 4042 1749 4061 3224 3650 3496
is_linear=0
shrinkage=0.05


Tree=5
num_leaves=31
num_cat=0
split_feature=2 4 0 3 7 2 3 2 3 2 4 4 0 7 0 4 7 4 4 7 0 4 6 7 7 0 5 4 0 0
split_gain=1217.21 449.505 222.011 190.428 117.873 117.649 103.761 57.0987 55.1513 52.3442 42.2388 37.4146 36.2593 33.4836 36.1601 33.3826 28.7145 31.883 27.6175 25.7456 23.1254 21.3532 18.4509 22.961 18.3614 16.8289 16.1585 15.7906 15.7352 15.1797
threshold=77.500000000000014 1017.5500000000001 6.6500000000000012 45.500000000000007 15.250000000000002 85.500000000000014 57.500000000000007 85.500000000000014 56.500000000000007 65.500000000000014 1009.35 1012.1500000000002 10.050000000000002 13.65 2.7500000000000004 1015.7500000000001 19.950000000000003 1015.2500000000001 1009.35 14.950000000000001 4.3500000000000005 1010.35 24.550000000000004 16.850000000000005 18.750000000000004 25.850000000000005 1016.35 1024.1500000000003 10.050000000000002 3.8500000000000001
decision_type=2 2 2 2 2 2 2 2 2 2 2 2 2 2 2 2 2 2 2 2 2 2 2 2 2 2 2 2 2 2
left_child=3 5 13 16 15 10 24 -8 21 -6 -2 25 19 14 -3 -5 17 -1 -10 -9 -17 -7 23 -12 -4 -11 -22 -28 -13 -20
right_child=1 2 6 4 9 8 7 12 18 11 22 28 -14 -15 -16 20 -18 -19 29 -21 26 -23 -24 -25 -26 -27 27 -29 -30 -31
leaf_value=0.002333163287063979 0.015970678482307377 -0.0050377658649549129 0.0059288181676688508 0.010838659093429195 -0.0048026254033541474 0.018035896916786035 0.0049044255181710465 0.013710989997774925 0.024399860215337292 0.0056015883673986534 0.011277966890009015 -0.005414620186764061 0.017580530670107238 -0.0065320028559090956 0.005511664736104707 -0.0051378504313047864 -0.0072383398306212618 -0.0055780461484566703 0.0071067637426055945 0.0019080594536804018 -0.0066071050062223718 0.0055458809246537446 0.014158317023926469 0.0028848123916726618 -0.0024172770451460638 -0.0069645140776220639 0.01023405961485894 0.0016746057159592953 -0.00079153307850252748 0.018415171094439173
leaf_weight=1694 1596 1674 907 1986 12828 499 2833 1060 2222 2842 1137 2329 2746 4652 1578 744 27457 5131 317 819 270 1089 682 2876 2410 294 1191 984 8776 4647
leaf_count=1694 1596 1674 907 1986 12828 499 2833 1060 2222 2842 1137 2329 2746 4652 1578 744 27457 5131 317 819 270 1089 682 2876 2410 294 1191 984 8776 4647
internal_value=0 0.00773604 0.00255345 -0.00392251 -0.00116417 0.0141619 0.00722214 0.0104943 0.0179034 -0.00248598 0.00894372 -0.000399199 0.0139184 -0.00381107 8.12383e-05 0.00574989 -0.00651688 -0.00361444 0.0197669 0.00856644 0.00258078 0.00947064 0.006555 0.00526284 -0.000135122 0.00442352 0.00492951 0.00636164 -0.00176111 0.017693
internal_weight=0 33744 18679 66526 32244 15065 10775 7458 8774 27069 6291 14241 4625 7904 3252 5175 34282 6825 7186 1879 3189 1588 4695 4013 3317 3136 2445 2175 11105 4964
internal_count=100270 33744 18679 66526 32244 15065 10775 7458 8774 27069 6291 14241 4625 7904 3252 5175 34282 6825 7186 1879 3189 1588 4695 4013 3317 3136 2445 2175 11105 4964
is_linear=0
shrinkage=0.05


Tree=6
num_leaves=31
num_cat=0
split_feature=2 0 3 3 7 2 4 2 4 0 1 4 4 1 4 3 4 4 7 1 1 0 1 0 0 1 6 0 1 6
split_gain=1098.61 406.168 205.795 177.453 107.891 95.2411 66.101 63.6326 62.0123 55.9801 59.5722 47.3797 42.7756 40.7091 40.187 32.6976 32.9403 24.6304 23.1858 22.8466 21.6419 20.67 17.5037 16.444 16.2638 16.6222 16.0485 15.5307 15.3604 15.2418
threshold=79.500000000000014 5.5500000000000007 46.500000000000007 57.500000000000007 15.250000000000002 89.500000000000014 1020.35 67.500000000000014 1014.1500000000002 9.6500000000000004 16.150000000000002 1010.1500000000002 1012.1500000000002 13.65 1020.4500000000002 33.500000000000007 1014.6500000000002 1023.85 20.150000000000002 22.950000000000003 20.750000000000004 10.450000000000001 20.850000000000005 25.850000000000005 9.8500000000000032 19.950000000000003 26.550000000000004 4.5500000000000007 24.750000000000004 24.550000000000004
decision_type=2 2 2 2 2 2 2 2 2 2 2 2 2 2 2 2 2 2 2 2 2 2 2 2 2 2 2 2 2 2
left_child=2 6 15 8 14 11 13 22 18 10 17 -5 23 -2 -4 -1 19 -7 -3 -17 -10 -22 -6 26 -14 -26 -9 -16 -23 -13
right_child=1 3 4 5 7 9 -8 12 20 -11 -12 29 24 -15 27 16 -18 -19 -20 -21 21 28 -24 -25 25 -27 -28 -29 -30 -31
leaf_value=-0.0073432711241997878 0.012209048924592967 0.019828746012101571 0.0091739056826727391 0.017884730590188476 -0.0012466601177363538 0.020776198368731728 -0.0053426290893529241 0.0043077823134292084 0.0051576622250844306 0.020746767165996528 0.0019488306273706256 0.0077184744948015404 -0.0048593086006347127 -0.0015619238922456365 -0.0056828784824641222 0.0038080225555538849 -0.0058387063172581181 0.0086296930459875566 0.0077147060167366659 -0.0034095111671075778 -0.0078722418076097658 0.0084143995334302769 -0.0052397431289893694 -0.0060414726663779511 0.0049471902587775434 -0.00097942549986217414 0.012444250720665028 0.003219807498015639 -0.0019824461882427787 0.017211544530149593
leaf_weight=20677 1039 600 3337 1612 3690 1387 5153 1937 1666 5391 960 6348 2139 1110 682 1692 10884 597 1156 3115 981 519 10710 271 1424 6993 882 1739 1126 453
leaf_count=20677 1039 600 3337 1612 3690 1387 5153 1937 1666 5391 960 6348 2139 1110 682 1692 10884 597 1156 3115 981 519 10710 271 1424 6993 882 1739 1126 453
internal_value=0 0.00799223 -0.00342671 0.0112796 -0.000618169 0.0139306 -0.00227049 -0.00189808 0.00393854 0.0177187 0.0121737 0.0101776 0.000548467 0.00509608 0.00561599 -0.00603725 -0.00431623 0.0171212 0.0118539 -0.000869035 0.000700101 -0.00212789 -0.00421652 0.00572258 -0.000966122 2.32478e-05 0.0068535 0.000711905 0.00129777 0.00835079
internal_weight=0 30098 70172 22796 33804 16748 7302 28046 6048 8335 2944 8413 13646 2149 5758 36368 15691 1984 1756 4807 4292 2626 14400 3090 10556 8417 2819 2421 1645 6801
internal_count=100270 30098 70172 22796 33804 16748 7302 28046 6048 8335 2944 8413 13646 2149 5758 36368 15691 1984 1756 4807 4292 2626 14400 3090 10556 8417 2819 2421 1645 6801
is_linear=0
shrinkage=0.05


Tree=7
num_leaves=31
num_cat=0
split_feature=2 4 0 3 2 1 3 4 4 2 3 2 0 1 0 3 4 4 1 0 1 6 0 3 4 0 4 0 4 1
split_gain=994.218 374.862 183.199 157.197 98.7492 96.1996 76.0221 67.8781 44.7069 43.1935 40.695 36.8203 35.059 33.61 50.0027 26.659 23.3594 20.0273 17.5399 16.5458 16.0231 26.5607 18.8939 15.6794 14.0944 14.0218 13.3161 13.307 13.2589 12.5361
threshold=77.500000000000014 1017.5500000000001 7.7500000000000009 37.500000000000007 87.500000000000014 18.050000000000004 68.500000000000014 1020.9500000000002 1009.35 65.500000000000014 55.500000000000007 86.500000000000014 11.450000000000001 15.450000000000001 4.3500000000000005 49.500000000000007 1008.0500000000001 1010.2500000000001 21.150000000000002 4.2500000000000009 19.050000000000004 24.550000000000004 5.1500000000000012 54.500000000000007 1010.35 5.8500000000000005 1007.6500000000002 10.350000000000003 1027.4500000000003 20.350000000000005
decision_type=2 2 2 2 2 2 2 2 2 2 2 2 2 2 2 2 2 2 2 2 2 2 2 2 2 2 2 2 2 2
left_child=3 4 13 26 8 7 15 23 -2 18 24 -8 -11 14 -3 -4 -14 -12 -7 -9 22 27 -10 -5 -6 -19 -1 -22 -16 -17
right_child=1 2 6 5 10 9 11 19 20 12 17 -13 16 -15 28 29 -18 25 -20 -21 21 -23 -24 -25 -26 -27 -28 -29 -30 -31
leaf_value=-0.0022197864231288359 0.015292584244068055 -0.0037805014365288321 -0.002773262098270203 0.0036814329078604792 0.01629453454824055 -0.0017536529793015011 0.0062250141398627551 -0.0069617262069768 0.00015080694378499527 -0.0051352938464511314 0.02230255499905634 0.01591222348720538 0.0078488181743182634 -0.0056896769812477821 0.0096304783894787856 0.0085239008428842633 -0.0003285244406068318 0.0090161363810192848 -0.0055580261751541869 0.00016551090933110876 -0.0059757259083531239 0.013406546868765452 0.013539696043137005 0.0094754122194904856 0.0044907161038221077 0.017588863964391573 -0.0069823702464860589 0.0040717557689435016 0.00023600000623013643 0.0027344889899448156
leaf_weight=1566 1986 2879 1385 2037 374 3950 1580 1108 332 3906 2252 2587 950 4669 1266 1698 10821 552 13004 3072 372 742 1277 2736 781 3510 23376 2887 534 2081
leaf_count=1566 1986 2879 1385 2037 374 3950 1580 1108 332 3906 2252 2587 950 4669 1266 1698 10821 552 13004 3072 372 742 1277 2736 781 3510 23376 2887 534 2081
internal_value=0 0.00699159 0.00225882 -0.00354505 0.0128597 -0.0016627 0.00721504 0.00292848 0.0088456 -0.00292239 0.0169421 0.0122391 -0.00103062 -0.00268838 0.000306507 0.00316094 0.000331443 0.0185206 -0.00467167 -0.00172372 0.0065633 0.00486874 0.010777 0.00700268 0.0083129 0.0164239 -0.00668335 0.00292488 0.00684345 0.00533582
internal_weight=0 33744 18679 66526 15065 41584 9331 8953 7596 32631 7469 4167 15677 9348 4679 5164 11771 6314 16954 4180 5610 4001 1609 4773 1155 4062 24942 3259 1800 3779
internal_count=100270 33744 18679 66526 15065 41584 9331 8953 7596 32631 7469 4167 15677 9348 4679 5164 11771 6314 16954 4180 5610 4001 1609 4773 1155 4062 24942 3259 1800 3779
is_linear=0
shrinkage=0.05


Tree=8
num_leaves=31
num_cat=0
split_feature=2 0 3 3 4 7 2 2 4 7 0 4 3 4 4 4 4 7 0 7 7 0 7 0 0 6 0 2 7 7
split_gain=902.605 341.52 181.829 107.066 91.0843 87.387 68.5358 58.2188 39.2483 38.0512 38.2088 34.8513 33.4416 32.7841 32.7828 32.4984 29.7265 29.1668 24.1095 21.3873 21.2322 19.9538 19.4095 16.276 14.9418 14.3728 14.2814 14.8765 14.1449 13.8402
threshold=80.500000000000014 6.9500000000000011 48.500000000000007 58.500000000000007 1014.35 15.15 89.500000000000014 69.500000000000014 1013.0500000000001 13.15 2.7500000000000004 1012.2500000000001 33.500000000000007 1021.5500000000001 1015.0500000000001 1013.5500000000001 1010.6500000000002 19.950000000000003 9.6500000000000004 17.550000000000004 15.550000000000002 12.450000000000001 22.150000000000002 9.8500000000000032 25.850000000000005 26.150000000000002 2.7500000000000004 48.500000000000007 21.850000000000005 24.250000000000004
decision_type=2 2 2 2 2 2 2 2 2 2 2 2 2 2 2 2 2 2 2 2 2 2 2 2 2 2 2 2 2 2
left_child=2 4 12 8 20 13 16 -7 28 10 -6 24 -1 26 -8 22 -5 -10 19 -16 -2 -19 -14 -13 25 -9 -4 -28 -3 -23
right_child=1 3 5 6 9 7 14 11 17 -11 -12 23 15 -15 18 -17 -18 21 -20 -21 -22 29 -24 -25 -26 -27 27 -29 -30 -31
leaf_value=-0.0066404659387727305 0.015014654458355613 0.018407029434379225 -0.0043483385285317611 0.016327999868765982 -0.0035983909582211447 -0.0034430906037469845 0.020898581859612242 0.004644206561347659 0.0084838019292888516 -0.0048830435001814866 0.0077130992115511526 -0.0046364337572591735 0.0039137653320995116 0.00045311077848563127 0.011312178150490598 -0.0049252348659585676 0.0082983865071032947 -0.005674543872607493 0.016729718850360297 -0.0060192544681002512 -0.0030543553177267316 0.011642419320085775 -0.002698341577244732 0.0007681372375338691 -0.0054323680932615321 0.012637710187174201 -0.0088950745490464292 0.0098036375068985757 0.0080890118502653565 7.9445995458769149e-05
leaf_weight=20757 1061 565 207 1470 1449 15105 3109 1718 1286 5070 1540 1727 1826 2053 1110 14049 5339 1130 2791 212 192 368 2830 7204 255 836 110 3223 806 872
leaf_count=20757 1061 565 207 1470 1449 15105 3109 1718 1286 5070 1540 1727 1826 2053 1110 14049 5339 1130 2791 212 192 368 2830 7204 255 836 110 3223 806 872
internal_value=0 0.00755293 -0.00297906 0.0113876 -0.000295191 -0.000205744 0.0136308 -0.0013903 0.00512658 -0.00224506 0.00222954 0.00125087 -0.00525874 0.00547985 0.0170239 -0.00372544 0.0100319 0.00242112 0.0140951 0.00853286 0.0122459 -0.000868585 -0.000105191 -0.000276952 0.00610844 0.00726072 0.00839507 0.00918652 0.0123411 0.00351104
internal_weight=0 28370 71900 19058 9312 32438 14031 26845 5027 8059 2989 11740 39462 5593 7222 18705 6809 3656 4113 1322 1253 2370 4656 8931 2809 2554 3540 3333 1371 1240
internal_count=100270 28370 71900 19058 9312 32438 14031 26845 5027 8059 2989 11740 39462 5593 7222 18705 6809 3656 4113 1322 1253 2370 4656 8931 2809 2554 3540 3333 1371 1240
is_linear=0
shrinkage=0.05


Tree=9
num_leaves=31
num_cat=0
split_feature=2 0 3 4 3 1 4 2 4 2 3 1 3 4 4 1 0 1 6 2 0 1 1 0 1 3 0 0 5 4
split_gain=814.601 309.204 164.133 127.427 91.1341 77.0604 56.3356 51.553 51.3846 36.5501 35.9819 34.8233 32.8624 29.9459 26.9408 22.7592 19.3942 17.0092 23.7643 16.6528 21.2968 22.1272 15.2547 16.8478 13.613 12.8384 12.2884 12.1932 11.9058 30.4259
threshold=80.500000000000014 5.5500000000000007 49.500000000000007 1014.4500000000002 57.500000000000007 18.050000000000004 1020.9500000000002 69.500000000000014 1021.0500000000001 89.500000000000014 82.500000000000014 13.65 33.500000000000007 1015.1500000000002 1009.0500000000001 22.950000000000003 12.65 17.650000000000002 24.550000000000004 88.500000000000014 9.6500000000000004 16.150000000000002 20.750000000000004 11.950000000000001 24.750000000000004 32.500000000000007 0.95000000000000007 9.8500000000000032 1018.0500000000001 1014.5500000000001
decision_type=2 2 2 2 2 2 2 2 2 2 2 2 2 2 2 2 2 2 2 2 2 2 2 2 2 2 2 2 2 2
left_child=2 8 12 9 22 6 28 -7 11 17 19 26 -1 15 -9 -14 -16 -3 -19 -6 21 -21 27 -24 -25 -11 -2 -5 29 -4
right_child=1 3 5 4 10 7 -8 14 -10 25 -12 -13 13 -15 16 -17 -18 18 -20 20 -22 -23 23 24 -26 -27 -28 -29 -30 -31
leaf_value=-0.0063084422641075683 -0.00033298465284970727 0.017620601174235345 0.010752570502241491 0.0020277935616798098 0.0054905185818018938 -0.0035465453567358109 -0.00047762524203846405 0.008375480108144177 -0.0049426676475273958 -0.0090534699035853868 0.015153436794638332 -0.0015719612429336627 0.0032688591194756037 -0.0048132635428027263 -0.003728625161366874 -0.0028885535145457171 0.0015975171748329612 0.0076967520987318823 0.018035530853123705 0.011251043880958822 0.013616403086832672 -1.0278360753119747e-05 -0.005962556992052395 0.011566654981159774 -0.00077197703409365853 0.019079045208705979 0.013359216018687196 0.012430498618236249 0.014207563819819982 0.0010910171695154717
leaf_weight=20757 202 1000 2114 1123 3376 13320 3368 1152 4701 41 2372 1225 2332 13544 2283 4210 6800 2371 726 974 2155 790 1199 305 837 3729 868 376 694 1326
leaf_count=20757 202 1000 2114 1123 3376 13320 3368 1152 4701 41 2372 1225 2332 13544 2283 4210 6800 2371 726 974 2155 790 1199 305 837 3729 868 376 694 1326
internal_value=0 0.00717528 -0.00283011 0.0101617 0.00721532 -9.05347e-05 0.00432272 -0.00149611 -0.00194863 0.0152203 0.00980384 0.00418426 -0.00491328 -0.00347151 0.00117237 -0.000693646 0.000258798 0.011951 0.0101204 0.00806439 0.0102816 0.00620771 0.000698869 -0.00182291 0.00252337 0.0187731 0.0107743 0.00463714 0.00823359 0.00702838
internal_weight=0 28370 71900 21374 13507 31057 7502 23555 6996 7867 9667 2295 40843 20086 10235 6542 9083 4097 3097 7295 3919 1764 3840 2341 1142 3770 1070 1499 4134 3440
internal_count=100270 28370 71900 21374 13507 31057 7502 23555 6996 7867 9667 2295 40843 20086 10235 6542 9083 4097 3097 7295 3919 1764 3840 2341 1142 3770 1070 1499 4134 3440
is_linear=0
shrinkage=0.05


Tree=10
num_leaves=31
num_cat=0
split_feature=2 0 3 3 1 4 7 2 7 4 2 1 0 0 1 4 1 4 0 0 4 4 2 0 0 2 4 4 5 4
split_gain=745.904 294.788 146.708 118.998 70.5006 64.8674 47.3975 45.67 44.9987 44.1174 43.3651 36.4912 47.3229 25.2356 25.0268 23.5724 23.4985 23.3242 22.5516 21.2276 19.8878 18.4404 17.9422 17.5225 16.6761 15.4335 24.6267 15.375 12.8134 19.5457
threshold=80.500000000000014 5.5500000000000007 53.500000000000007 69.500000000000014 17.250000000000004 1014.4500000000002 20.450000000000003 89.500000000000014 11.350000000000003 1018.4500000000002 71.500000000000014 19.450000000000003 13.950000000000001 9.7500000000000018 16.150000000000002 1013.85 20.050000000000004 1022.1500000000002 1.1500000000000001 14.450000000000001 1011.35 1010.1500000000002 56.500000000000007 7.3500000000000005 7.1500000000000012 56.500000000000007 1012.0500000000001 1012.35 1010.1500000000002 1008.2500000000001
decision_type=2 2 2 2 2 2 2 2 2 2 2 2 2 2 2 2 2 2 2 2 2 2 2 2 2 2 2 2 2 2
left_child=2 8 6 5 15 16 9 21 18 22 -6 17 -13 14 -9 28 -3 -7 -2 -18 -12 -5 -1 -17 -24 -8 -27 -10 29 -4
right_child=1 3 4 7 10 11 25 13 27 -11 20 12 -14 -15 -16 23 19 -19 -20 -21 -22 -23 24 -25 -26 26 -28 -29 -30 -31
leaf_value=-0.0017853556549584813 -0.0029321764931384371 0.017516603284705442 0.012828774547248376 0.015932152150891537 -0.0027761794706512802 0.012254013757262434 -0.0063684233513087917 0.01485749127158266 0.0076424054382892145 -0.0040653133904956741 0.0067872007620327583 -0.0032591616182034554 0.007317172552740097 0.018818892008619803 0.0010843890626424863 -0.00026391851690782544 0.0018276713992914874 0.0034769497962753755 0.010178603206715379 0.012198346495120917 0.00064466536257235061 0.0081320152389432448 -0.00069783723469395652 0.0066528418864370458 0.0071075967003798538 3.8426695885169636e-06 -0.0051594100605298213 -0.0046549092712146901 0.017885587041470113 -0.002373133907652804
leaf_weight=2003 494 1196 635 968 12511 1498 17925 1510 267 8363 1691 2810 1696 3962 422 1679 729 1530 976 1527 5970 3488 1062 2014 1924 2830 12554 5292 466 317
leaf_count=2003 494 1196 635 968 12511 1498 17925 1510 267 8363 1691 2810 1696 3962 422 1679 729 1530 976 1527 5970 3488 1062 2014 1924 2830 12554 5292 466 317
internal_value=0 0.00687359 -0.0027004 0.00979925 0.000366942 0.00617486 -0.00436242 0.0136463 -0.00200703 -0.00184544 -0.000962075 0.00357419 0.000721633 0.0165343 0.0118491 0.00561228 0.0118508 0.0078191 0.00577267 0.00884718 0.0020005 0.00982648 0.0018757 0.00350818 0.00433152 -0.00537135 -0.00420959 -0.00406427 0.0110922 0.00776679
internal_weight=0 28365 71944 21336 25283 10986 46661 10350 7029 13352 20172 7534 4506 5894 1932 5111 3452 3028 1470 2256 7661 4456 4989 3693 2986 33309 15384 5559 1418 952
internal_count=100309 28365 71944 21336 25283 10986 46661 10350 7029 13352 20172 7534 4506 5894 1932 5111 3452 3028 1470 2256 7661 4456 4989 3693 2986 33309 15384 5559 1418 952
is_linear=0
shrinkage=0.05


Tree=11
num_leaves=31
num_cat=0
split_feature=2 3 4 1 4 2 3 4 1 2 4 4 4 5 2 6 3 5 4 4 2 6 4 6 4 7 4 5 5 6
split_gain=674.107 277.111 120.128 101.477 90.5461 52.3258 51.3649 44.5067 35.2959 28.6014 24.3514 21.4617 20.3341 30.2816 17.8272 33.5436 16.5525 15.9109 15.5952 14.5937 13.4944 16.2868 13.3614 13.166 12.8656 11.8113 11.3809 26.8006 11.2273 9.95359
threshold=73.500000000000014 62.500000000000007 1018.1500000000002 20.050000000000004 1014.4500000000002 87.500000000000014 81.500000000000014 1014.35 20.650000000000002 63.500000000000007 1010.7500000000001 1012.0500000000001 1024.2500000000002 1021.6500000000002 83.500000000000014 10.050000000000002 49.500000000000007 1012.7500000000001 1025.6500000000003 1007.6500000000002 85.500000000000014 10.750000000000002 1026.4500000000003 12.450000000000001 1008.0500000000001 15.550000000000002 1020.9500000000002 1018.5500000000001 1024.4500000000003 24.550000000000004
decision_type=2 2 2 2 2 2 2 2 2 2 2 2 2 2 2 2 2 2 2 2 2 2 2 2 2 2 2 2 2 2
left_child=3 2 8 7 5 19 14 17 23 -5 -10 -11 13 26 -6 18 -4 24 -16 -3 -8 -22 28 25 -1 -2 27 -9 -18 -21
right_child=1 4 16 9 6 -7 20 12 10 11 -12 -13 -14 -15 15 -17 22 -19 -20 29 21 -23 -24 -25 -26 -27 -28 -29 -30 -31
leaf_value=0.0080314185589680943 0.010384503941724547 0.013860653566051812 -0.0045892162203822005 -0.0054481832358989788 0.0018304422155193901 0.017154114201194687 0.0061503838126858081 -0.0013571727639897276 0.0084273619607310238 0.00093878830930310242 0.0007038348849562337 -0.0037542259078185447 -0.0041009232318023935 0.0096542118439006935 0.005155086336314247 0.0089366393737430692 0.00020366564503193014 0.01392751189544029 -0.0030854042518217092 0.005562801842623968 0.0078093785958526403 0.016102108916201306 -0.0040431812660881158 0.014553827488640017 0.00099426306523081424 0.0020305180303153213 -0.0042034754835828725 0.0090644245746851898 0.013302917546209167 0.011965656587306191
leaf_weight=1155 1182 1171 5379 30690 3915 3866 888 3119 1427 3093 3583 11471 3822 793 1243 3942 4329 485 1067 2237 898 1738 2218 986 1484 659 1697 769 170 833
leaf_count=1155 1182 1171 5379 30690 3915 3866 888 3119 1427 3093 3583 11471 3822 793 1243 3942 4329 485 1067 2237 898 1738 2218 986 1484 659 1697 769 170 833
internal_value=0 0.00486282 0.000602034 -0.00345305 0.00875906 0.0129468 0.0062793 0.000382235 0.00542431 -0.00458226 0.00290373 -0.00275756 -0.00121703 0.000511134 0.00447625 0.00613306 -0.00252232 0.00560391 0.00134876 0.00911158 0.0114812 0.013277 -0.000867145 0.00989129 0.00407419 0.00739413 -0.000787068 0.000704095 0.000698636 0.00730012
internal_weight=0 41731 19933 58578 21798 8107 13691 13324 7837 45254 5010 14564 10200 6378 10167 6252 12096 3124 2310 4241 3524 2636 6717 2827 2639 1841 5585 3888 4499 3070
internal_count=100309 41731 19933 58578 21798 8107 13691 13324 7837 45254 5010 14564 10200 6378 10167 6252 12096 3124 2310 4241 3524 2636 6717 2827 2639 1841 5585 3888 4499 3070
is_linear=0
shrinkage=0.05


Tree=12
num_leaves=31
num_cat=0
split_feature=2 4 3 3 1 2 2 6 7 4 4 3 4 4 6 1 2 4 4 5 4 5 5 4 4 2 6 1 2 6
split_gain=612.794 223.221 123.155 99.2213 64.1102 46.1152 37.7099 31.7696 26.9933 29.0966 26.402 26.1557 26.0467 25.16 18.7254 21.8845 14.8423 14.4492 13.0979 26.5578 18.603 17.7565 12.4944 17.9407 11.5836 14.9882 11.4609 13.1609 10.8007 10.7387
threshold=80.500000000000014 1018.1500000000002 49.500000000000007 66.500000000000014 17.250000000000004 89.500000000000014 68.500000000000014 10.250000000000002 20.250000000000004 1019.85 1025.8500000000001 46.500000000000007 1011.35 1009.85 10.250000000000002 19.050000000000004 91.500000000000014 1012.1500000000002 1013.85 1016.1500000000002 1019.1500000000002 1023.85 1010.1500000000002 1008.2500000000001 1012.0500000000001 55.500000000000007 24.650000000000002 20.150000000000002 56.500000000000007 13.050000000000002
decision_type=2 2 2 2 2 2 2 2 2 2 2 2 2 2 2 2 2 2 2 2 2 2 2 2 2 2 2 2 2 2
left_child=2 5 8 14 10 13 -6 -5 9 28 18 -7 -8 -2 -3 -16 -9 -13 22 -20 -21 -22 23 -4 25 -10 27 -15 -1 -14
right_child=1 3 4 7 6 11 12 16 24 -11 -12 17 29 26 15 -17 -18 -19 19 20 21 -23 -24 -25 -26 -27 -28 -29 -30 -31
leaf_value=-0.0018583983642215256 0.012871589842510323 -0.00348173830856815 0.011327013069142898 0.0021781572616953772 -0.0030649885247159459 0.0020066556756291754 0.0053775691390995431 0.0069833096614408136 -0.005002746313190227 -0.0044257989160151282 -0.001769576630921978 0.017342640031044722 -0.0060152582958995227 0.0085675506979194394 0.0067316547882827846 -0.0011156993355117949 0.013220060129896511 0.012492502790133832 -0.0036163465985035535 0.014707687951039536 0.0022910328278594582 0.015613890234941625 0.016045284771141321 -0.0023057640666147238 -0.0055056976408482455 -8.4324525090639956e-05 0.013966508117679181 0.0029995806013227355 0.0030395183249794207 0.00013175136945264168
leaf_weight=1979 1914 4614 720 2165 13009 431 2489 2156 4085 5681 1320 2869 774 1824 1232 3186 1711 3304 788 586 1529 299 544 363 24013 2495 421 2538 2610 8660
leaf_count=1979 1914 4614 720 2165 13009 431 2489 2156 4085 5681 1320 2869 774 1824 1232 3186 1711 3304 788 586 1529 299 544 363 24013 2495 421 2538 2610 8660
internal_value=0 0.00623013 -0.00244764 0.00206222 -7.56312e-05 0.0109505 -0.00120337 0.00702773 -0.00425183 -0.00203385 0.00449696 0.0139152 0.000827806 0.00802692 -0.00125398 0.00107261 0.00974283 0.0147467 0.00620991 0.00435371 0.00695536 0.00447021 0.00986299 0.00675758 -0.0049964 -0.00313778 0.00608824 0.00532787 0.000927298 -0.000372572
internal_weight=0 28365 71944 15064 31081 13301 24932 6032 40863 10270 6149 6604 11923 6697 9032 4418 3867 6173 4829 3202 2414 1828 1627 1083 30593 6580 4783 4362 4589 9434
internal_count=100309 28365 71944 15064 31081 13301 24932 6032 40863 10270 6149 6604 11923 6697 9032 4418 3867 6173 4829 3202 2414 1828 1627 1083 30593 6580 4783 4362 4589 9434
is_linear=0
shrinkage=0.05


Tree=13
num_leaves=31
num_cat=0
split_feature=2 0 3 3 7 1 2 2 7 0 0 6 1 0 6 0 1 7 0 0 7 0 0 2 3 7 2 0 7 6
split_gain=554.412 234.428 122.224 69.2247 60.6311 57.6715 42.0352 35.3309 35.3095 35.2646 32.5066 24.5587 24.1087 24.4387 23.0381 22.6993 31.9612 18.8461 18.5085 17.9821 23.4983 17.4441 15.0989 14.1403 12.7865 12.3326 11.9263 15.4123 10.9837 10.5676
threshold=81.500000000000014 6.9500000000000011 53.500000000000007 55.500000000000007 11.750000000000002 17.750000000000004 89.500000000000014 72.500000000000014 20.550000000000004 7.4500000000000011 2.3500000000000001 25.050000000000004 20.750000000000004 13.850000000000003 24.550000000000004 9.7500000000000018 17.650000000000002 16.650000000000002 25.350000000000005 3.7500000000000004 15.450000000000001 5.9500000000000011 13.65 55.500000000000007 85.500000000000014 17.550000000000004 56.500000000000007 14.15 11.15 14.450000000000001
decision_type=2 2 2 2 2 2 2 2 2 2 2 2 2 2 2 2 2 2 2 2 2 2 2 2 2 2 2 2 2 2
left_child=2 4 8 12 10 21 14 -7 9 -1 -2 -9 29 -14 17 16 -8 -5 -13 -6 -21 28 -19 -11 -17 -25 -10 -28 -4 -3
right_child=1 3 5 6 19 7 15 11 26 23 -12 18 13 -15 -16 24 -18 22 -20 20 -22 -23 -24 25 -26 -27 27 -29 -30 -31
leaf_value=-0.004099365344074157 -0.0010744933937535141 0.0078029849911994201 0.0066205569624776129 0.011063676542055692 -0.0054849696959434263 -0.0023534724077003189 0.012606644845751205 0.00060319017515643035 -0.0055185424697121177 -0.0020669298028907642 0.011514387326486877 0.011257886934320284 -0.0035620803666913379 0.0061964633098493017 0.017152692012688937 0.013578934904710644 -0.0016784966238874207 0.00017516871413234306 -0.0025502328159688397 0.0038029796429234469 -0.0045735508331178603 0.0063204309396806798 0.0070744815729366865 0.0060399461987860155 0.018694895669654179 0.00054883595745442283 -0.0050983027587334319 -0.001935372665392468 -0.0024172621352527381 0.022944879133737727
leaf_weight=7123 825 957 478 1986 3291 12998 1654 5881 17841 2491 1355 1046 1448 1152 633 3713 513 1119 316 1717 1634 4540 2722 1663 1820 2655 8250 7224 1133 131
leaf_count=7123 825 957 478 1986 3291 12998 1654 5881 17841 2491 1355 1046 1448 1152 633 3713 513 1119 316 1717 1634 4540 2722 1663 1820 2655 8250 7224 1133 131
internal_value=0 0.00618265 -0.00223113 0.00947838 -0.000485033 0.000494371 0.0110675 -0.000794091 -0.00375358 -0.00163989 0.00675025 0.00200431 0.00337681 0.000761705 0.00809332 0.0135628 0.00922488 0.00710918 0.00805424 -0.00285976 -0.000281548 0.00473429 0.0050645 0.00093301 0.0152618 0.00266364 -0.0046375 -0.0036217 0.00026435 0.00962614
internal_weight=0 26670 73639 17848 8822 26392 14160 20241 47247 13932 2180 7243 3688 2600 6460 7700 2167 5827 1362 6642 3351 6151 3841 6809 5533 4318 33315 15474 1611 1088
internal_count=100309 26670 73639 17848 8822 26392 14160 20241 47247 13932 2180 7243 3688 2600 6460 7700 2167 5827 1362 6642 3351 6151 3841 6809 5533 4318 33315 15474 1611 1088
is_linear=0
shrinkage=0.05


Tree=14
num_leaves=31
num_cat=0
split_feature=2 4 3 1 2 3 4 2 1 4 4 4 5 4 5 6 6 2 3 4 5 1 4 4 6 7 5 3 4 5
split_gain=502.41 211.082 117.798 77.7903 71.2159 44.9118 36.4651 21.9399 21.4563 21.245 20.7078 17.5877 17.3852 17.3173 26.7581 17.1988 16.438 17.6784 16.0345 14.4036 14.0752 12.63 10.9379 10.4928 10.3455 11.7956 9.80226 9.73904 9.36156 23.5897
threshold=73.500000000000014 1015.7500000000001 60.500000000000007 20.050000000000004 84.500000000000014 81.500000000000014 1014.35 63.500000000000007 18.650000000000002 1010.2500000000001 1021.85 1011.5500000000001 1018.1500000000002 1024.2500000000002 1021.6500000000002 25.450000000000003 7.4500000000000011 84.500000000000014 48.500000000000007 1020.1500000000002 1012.7500000000001 32.550000000000004 999.85000000000002 1024.1500000000003 11.950000000000001 14.850000000000003 1020.9500000000002 84.500000000000014 1020.9500000000002 1018.4500000000002
decision_type=2 2 2 2 2 2 2 2 2 2 2 2 2 2 2 2 2 2 2 2 2 2 2 2 2 2 2 2 2 2
left_child=3 4 10 6 8 16 20 -5 -2 -6 12 -9 -3 14 28 -10 23 -18 -11 -14 22 -17 -1 26 25 -19 -4 -20 29 -8
right_child=1 2 5 7 9 -7 13 11 15 18 -12 -13 19 -15 -16 21 17 24 27 -21 -22 -23 -24 -25 -26 -27 -28 -29 -30 -31
leaf_value=0.013936168659415285 0.010155934063826326 -0.0012012636184994946 6.2770208104200346e-05 -0.0047281593379056895 0.015320163852866206 0.01009966625875388 -0.0013572844347614198 0.0012467872639438879 0.0022656041180967542 0.00081347916275262841 -0.0035899152250436768 -0.0032059648678959499 0.01201000341156842 -0.0037320819853457528 0.0091188202524019827 0.012362461343017727 0.0016518273093523593 0.0061773944617722161 0.0094674799659977792 0.0014811479253948321 0.012932070270948804 0.0030210143727500264 0.0026557902699701499 -0.0051791800922134897 0.0082267069054617701 -0.0016114676073905065 0.015917193400859835 0.014997652315151464 -0.003794743598789486 0.0081895574073239073
leaf_weight=236 1818 4137 443 30690 3289 3071 3068 2729 4174 428 7501 11835 503 3822 793 879 4207 1443 2875 917 485 615 2403 873 2599 733 125 1101 1697 820
leaf_count=236 1818 4137 443 30690 3289 3071 3068 2729 4174 428 7501 11835 503 3822 793 879 4207 1443 2875 917 485 615 2403 873 2599 733 125 1101 1697 820
internal_value=0 0.00419806 0.00150938 -0.00298108 0.00890126 0.00478548 0.000376889 -0.00396976 0.00542942 0.0122797 -0.00187612 -0.00237161 0.000437217 -0.0010707 0.000524119 0.0039134 0.00321973 0.00401505 0.010009 0.00521074 0.00510335 0.00851709 0.00366457 -0.00173766 0.00609717 0.00355366 0.00355186 0.0109988 -0.00069622 0.000656196
internal_weight=0 41731 26552 58578 15179 13494 13324 45254 7486 7693 13058 14564 5557 10200 6378 5668 10423 8982 4404 1420 3124 1494 2639 1441 4775 2176 568 3976 5585 3888
internal_count=100309 41731 26552 58578 15179 13494 13324 45254 7486 7693 13058 14564 5557 10200 6378 5668 10423 8982 4404 1420 3124 1494 2639 1441 4775 2176 568 3976 5585 3888
is_linear=0
shrinkage=0.05


Tree=15
num_leaves=31
num_cat=0
split_feature=2 4 2 3 1 0 4 4 2 0 2 0 0 4 3 5 2 0 1 5 4 7 7 0 0 3 0 4 5 1
split_gain=454.742 196.804 90.9285 88.2241 68.4491 45.6505 45.6178 32.0514 31.3393 26.3223 19.8896 20.9199 18.8274 18.3184 18.0318 17.4606 17.172 16.2994 21.833 15.4802 16.9951 14.1993 13.766 13.6925 12.3462 11.2694 10.8864 10.777 11.3295 15.544
threshold=73.500000000000014 1018.1500000000002 85.500000000000014 60.500000000000007 21.250000000000004 7.8500000000000005 1015.7500000000001 1009.0500000000001 83.500000000000014 3.9500000000000006 60.500000000000007 14.350000000000003 8.5500000000000025 1007.85 47.500000000000007 1016.35 55.500000000000007 4.8500000000000005 19.350000000000005 1013.9500000000002 1012.35 13.15 13.250000000000002 1.9500000000000002 10.250000000000002 83.500000000000014 12.450000000000001 1014.4500000000002 1011.7500000000001 19.650000000000002
decision_type=2 2 2 2 2 2 2 2 2 2 2 2 2 2 2 2 2 2 2 2 2 2 2 2 2 2 2 2 2 2
left_child=4 2 7 17 6 21 16 -2 -7 -4 -6 -12 22 -11 -15 27 -1 -3 24 20 -18 23 -8 -5 -19 -10 -20 28 -9 -30
right_child=1 3 9 5 10 8 12 15 25 13 11 -13 -14 14 -16 -17 19 18 26 -21 -22 -23 -24 -25 -26 -27 -28 -29 29 -31
leaf_value=-0.00054222111833297597 0.0096184905028378932 -0.0048823161777265733 0.001438126080657965 -0.0038443007582915582 -0.0048102128015771236 0.0023239548962849838 0.0020177433795448558 0.0025695518414605399 0.0077955332244859015 0.016331091584274194 -0.00480491820519976 -0.0011758486969736871 0.00035279405631530596 0.0020258759792400574 0.011456546719820626 0.010758885665502961 0.0070856935975003414 0.0016106273249799248 -0.0048157122913223688 0.013702033113923659 -0.0012558700906869947 -0.0034488926603866311 -0.0045222186921373402 0.0048864988258749287 0.012468586928698401 0.013938994623138454 0.00040319026136181429 0.00019471180317789745 0.015290878684413509 0.0029722840237764669
leaf_weight=1475 2336 4276 648 621 24946 2626 938 3452 2853 1829 6483 10249 5584 551 6328 669 1931 1967 2849 538 893 1849 5659 1622 302 1011 1539 3344 467 567
leaf_count=1475 2336 4276 648 621 24946 2626 938 3452 2853 1829 6483 10249 5584 551 6328 669 1931 1967 2849 538 893 1849 5659 1622 302 1011 1539 3344 467 567
internal_value=0 0.00400382 0.00754933 0.000676489 -0.0028246 0.00393095 -0.000152526 0.00443136 0.00653863 0.0111602 -0.00391567 -0.00258197 -0.00178381 0.0118837 0.0107012 0.00300565 0.00395553 -0.00247349 -0.000926219 0.00592882 0.00444794 -0.000204891 -0.00359233 0.00246928 0.0030558 0.00940295 -0.00298529 0.00234321 0.00394477 0.0085359
internal_weight=0 41706 20191 21515 58696 10582 17018 10835 6490 9356 41678 16732 12181 8708 6879 8499 4837 10933 6657 3362 2824 4092 6597 2243 2269 3864 4388 7830 4486 1034
internal_count=100402 41706 20191 21515 58696 10582 17018 10835 6490 9356 41678 16732 12181 8708 6879 8499 4837 10933 6657 3362 2824 4092 6597 2243 2269 3864 4388 7830 4486 1034
is_linear=0
shrinkage=0.05


Tree=16
num_leaves=31
num_cat=0
split_feature=2 4 0 2 1 7 0 4 2 7 0 2 1 4 2 0 0 3 2 0 5 4 0 0 7 4 5 7 5 4
split_gain=410.405 178.117 96.6359 64.6566 61.7753 59.9231 62.7269 41.1701 33.7511 31.1822 23.1117 22.7257 20.6489 18.7567 17.9504 18.8802 17.0854 15.9577 15.4977 14.2377 13.9709 15.4845 13.5784 13.4671 12.4312 12.3717 14.7485 11.0507 10.9856 14.1779
threshold=73.500000000000014 1016.1500000000002 7.2500000000000009 84.500000000000014 21.250000000000004 19.450000000000003 14.65 1015.7500000000001 85.500000000000014 13.15 1.5500000000000003 88.500000000000014 18.350000000000005 1005.85 60.500000000000007 14.350000000000003 7.0500000000000007 35.500000000000007 55.500000000000007 10.750000000000002 1013.9500000000002 1011.9500000000002 4.2500000000000009 11.450000000000001 14.450000000000001 1025.6500000000003 1016.7385000000002 15.65 1009.5275 1005.5500000000001
decision_type=2 2 2 2 2 2 2 2 2 2 2 2 2 2 2 2 2 2 2 2 2 2 2 2 2 2 2 2 2 2
left_child=4 3 9 12 7 11 -7 18 -8 10 -3 -4 -2 -5 -6 -16 -9 -15 -1 -14 21 28 -19 27 -18 26 -12 -13 29 -20
right_child=1 2 5 13 14 6 8 16 -10 -11 25 23 19 17 15 -17 24 22 20 -21 -22 -23 -24 -25 -26 -27 -28 -29 -30 -31
leaf_value=-0.0005151100514803902 0.0094112557589191292 -0.0041328177296133485 0.0046177248650027935 0.016618202036434365 -0.0045697021370164227 -0.0042514822810450405 0.0015735701816020319 -0.0039925342493527128 0.011116035600573245 -0.0042710400893398994 -0.0024071621036452387 0.010977915443602156 -0.0034972349041038093 -0.0059238849609505899 -0.0045646722577759357 -0.0011170562655126214 0.0053172259082122407 0.0021026767887923395 0.010709964689377646 0.0041999406672163292 0.013016931430114689 -0.00067946506128078554 0.011025671933806311 0.014787730113646695 -0.00094256294041941712 -0.00032793289642328414 0.0099256574935383274 0.0036292389238191929 0.013949509385612706 0.0004105997423280064
leaf_weight=1475 1825 1202 4212 1290 24946 3471 2667 4861 1420 7238 309 1220 675 153 6483 10249 905 458 584 5464 538 1025 6170 1070 6415 856 1125 881 434 781
leaf_count=1475 1825 1202 4212 1290 24946 3471 2667 4861 1420 7238 309 1220 675 153 6483 10249 905 458 584 5464 538 1025 6170 1070 6415 856 1125 881 434 781
internal_value=0 0.00380363 0.00122115 0.00793801 -0.00268337 0.00382088 0.000691266 -0.0001449 0.00488903 -0.00239884 0.00148173 0.00702467 0.00474176 0.0110919 -0.00371988 -0.00245287 -0.00169462 0.0100406 0.00375775 0.00335361 0.00563237 0.00422554 0.0104091 0.0102218 -0.000168641 0.00442875 0.00726817 0.00789644 0.00702023 0.00481707
internal_weight=0 41706 25671 16035 58696 14941 7558 17018 4087 10730 3492 7383 7964 8071 41678 16732 12181 6781 4837 6139 3362 2824 6628 3171 7320 2290 1434 2101 1799 1365
internal_count=100402 41706 25671 16035 58696 14941 7558 17018 4087 10730 3492 7383 7964 8071 41678 16732 12181 6781 4837 6139 3362 2824 6628 3171 7320 2290 1434 2101 1799 1365
is_linear=0
shrinkage=0.05


Tree=17
num_leaves=31
num_cat=0
split_feature=3 2 0 3 4 1 4 2 6 0 2 3 4 1 0 2 4 1 1 4 7 0 4 4 1 1 0 1 0 2
split_gain=372.869 150.447 94.5899 58.672 47.9191 35.5108 30.0317 27.7295 25.1101 24.2547 22.7031 21.5005 20.3076 40.2329 32.0606 20.8042 18.5913 16.0445 12.442 11.5796 10.8841 32.0424 10.3628 10.1948 9.87195 9.82601 9.57013 12.54 11.0271 8.69182
threshold=58.500000000000007 83.500000000000014 5.6500000000000012 37.500000000000007 1010.9500000000002 16.550000000000004 1011.85 69.500000000000014 25.650000000000002 25.350000000000005 78.500000000000014 83.500000000000014 1023.35 20.150000000000002 7.0500000000000007 70.500000000000014 1020.85 21.150000000000002 12.350000000000003 1013.85 15.550000000000002 11.250000000000002 1024.9500000000003 1011.1500000000002 19.950000000000003 26.350000000000005 8.5500000000000025 21.450000000000003 14.550000000000002 80.500000000000014
decision_type=2 2 2 2 2 2 2 2 2 2 2 2 2 2 2 2 2 2 2 2 2 2 2 2 2 2 2 2 2 2
left_child=3 5 16 23 10 19 -4 -7 26 -10 17 20 13 14 -6 -16 18 -5 -3 -2 22 24 -8 25 -22 -1 -9 -28 -29 -15
right_child=1 2 6 4 12 7 11 8 9 -11 -12 -13 -14 29 15 -17 -18 -19 -20 -21 21 -23 -24 -25 -26 -27 27 28 -30 -31
leaf_value=0.0022175880682180362 0.0095059867573923495 0.01034087177815167 0.013576034975041324 0.0063209568781995634 -0.00135428019979457 -0.0021188770236612179 0.012018713595472557 -0.0054772947102047949 0.010968449314159596 -0.0029293984762932129 0.010096044252975953 0.011966438370170205 -0.0036752662444462514 -0.0028262757905792562 0.0021916087907903332 0.0097660941665003685 -0.0029035306635069487 -0.00067034747358651794 0.0004593994285239548 0.0036598386752188503 0.001387974085151696 0.0079573269970191936 0.0045792417981868521 -0.0045640768734571012 -0.0082750795182188926 -0.003266010862398281 0.0038780539490389388 -0.0060079842299512291 0.00070613448053983142 0.0005947221646035413
leaf_weight=1076 1214 564 3388 1268 3298 7350 1438 566 1261 418 1069 2599 9425 13149 2125 1581 2033 2326 732 2802 1052 3347 694 22111 353 3393 2859 721 4028 2162
leaf_count=1076 1214 564 3388 1268 3298 7350 1438 566 1261 418 1069 2599 9425 13149 2125 1581 2033 2326 732 2802 1052 3347 694 22111 353 3393 2859 721 4028 2162
internal_value=0 0.00396384 0.00759229 -0.00233791 -0.0010339 0.00119364 0.00953535 0.000205356 0.00193915 0.00750847 0.003699 0.00809173 -0.00172922 -0.00090728 0.00223172 0.00542293 7.98e-05 0.00179626 0.00475967 0.00542708 0.00662887 0.00529718 0.00959705 -0.00412384 -0.00103983 -0.00194573 0.000795175 0.00126182 -0.000313213 -0.00234321
internal_weight=0 37419 16200 62983 36403 21219 12871 17203 9853 1679 4663 9483 31740 22315 7004 3706 3329 3594 1296 4016 6884 4752 2132 26580 1405 4469 8174 7608 4749 15311
internal_count=100402 37419 16200 62983 36403 21219 12871 17203 9853 1679 4663 9483 31740 22315 7004 3706 3329 3594 1296 4016 6884 4752 2132 26580 1405 4469 8174 7608 4749 15311
is_linear=0
shrinkage=0.05


Tree=18
num_leaves=31
num_cat=0
split_feature=2 0 2 1 4 4 4 3 7 1 0 0 1 2 2 0 0 0 0 7 3 1 0 0 0 1 4 4 4 4
split_gain=337.119 150.281 95.9263 51.4033 45.5438 35.0451 34.857 33.3166 32.9885 22.3432 25.857 18.4429 34.1122 17.5502 15.3665 16.4368 15.1144 14.8399 13.6697 11.715 11.3514 11.0825 20.6314 10.1485 11.1387 12.5511 9.85279 9.38248 9.13785 8.91501
threshold=73.500000000000014 5.6500000000000012 84.500000000000014 21.250000000000004 1014.4500000000002 1011.2500000000001 1020.5500000000001 55.500000000000007 11.350000000000003 19.250000000000004 13.15 11.250000000000002 18.750000000000004 55.500000000000007 62.500000000000007 14.350000000000003 1.1500000000000001 5.7500000000000009 8.6500000000000004 13.250000000000002 34.500000000000007 20.250000000000004 14.050000000000002 25.350000000000005 22.650000000000002 18.350000000000005 1005.85 1023.4500000000002 1007.4500000000002 1004.0500000000001
decision_type=2 2 2 2 2 2 2 2 2 2 2 2 2 2 2 2 2 2 2 2 2 2 2 2 2 2 2 2 2 2
left_child=3 8 5 6 20 23 13 -6 16 18 -11 12 27 -1 -5 -16 -2 -15 19 -7 -4 -13 -23 24 25 -3 -22 -9 -17 -19
right_child=1 2 4 14 7 9 -8 11 -10 10 -12 21 -14 17 15 28 -18 29 -20 -21 26 22 -24 -25 -26 -27 -28 -29 -30 -31
leaf_value=-0.0014816274902310579 -0.0028485930180764413 0.011482077547298151 -0.0038926332133511704 -0.0040684286030826444 0.00029790638784979722 0.0071255418754838139 -0.0024592081867185625 0.0095956944337894298 -0.0035419589706969096 -0.0038211834582574512 0.0017838438882349459 0.01314666671383662 -0.0042341640485184535 -0.001660790463357672 -0.0041939827975978495 0.0052081221246660639 0.0070876113025038004 0.011916714504322648 0.0070300125967815656 -0.0017777204258829103 0.015784710093684817 -0.0027150112371891739 0.0097263275546755259 -0.002347398263172827 0.013783772908151149 0.0039058245418791002 0.010610473201802646 0.0041443141835645356 -0.0011414805529682591 0.0040261506744678393
leaf_weight=2494 555 787 120 27459 2169 540 8214 1823 7631 3169 5867 1485 812 1151 5468 609 1233 387 2140 1170 1150 400 1996 276 600 1790 4601 1392 8142 4772
leaf_count=2494 555 787 120 27459 2169 540 8214 1823 7631 3169 5867 1485 812 1151 5468 609 1233 387 2140 1170 1150 400 1996 276 600 1790 4601 1392 8142 4772
internal_value=0 0.00344729 0.00506839 -0.00243206 0.00782697 0.00237584 -0.000116472 0.00578748 -0.00210963 0.00117714 -0.000181886 0.00729315 0.0049227 0.00206927 -0.00337756 -0.00204338 0.00400339 0.00347274 0.00436678 0.00103384 0.0113276 0.00975278 0.00764931 0.00684918 0.00764812 0.00621957 0.0116451 0.00723541 -0.000699599 0.00461806
internal_weight=0 41706 32287 58696 15948 16339 17018 10077 9419 12886 9036 7908 4027 8804 41678 14219 1788 6310 3850 1710 5871 3881 2396 3453 3177 2577 5751 3215 8751 5159
internal_count=100402 41706 32287 58696 15948 16339 17018 10077 9419 12886 9036 7908 4027 8804 41678 14219 1788 6310 3850 1710 5871 3881 2396 3453 3177 2577 5751 3215 8751 5159
is_linear=0
shrinkage=0.05


Tree=19
num_leaves=31
num_cat=0
split_feature=3 2 0 3 4 1 4 1 2 6 4 0 3 0 1 4 1 0 2 1 5 2 0 2 0 2 1 0 1 3
split_gain=305.856 122.954 76.5662 49.095 40.3991 30.3044 25.5736 24.593 22.8734 23.8674 20.5088 18.6441 17.3618 15.9432 34.6765 23.2322 15.5216 13.4027 19.1324 13.3588 11.6229 10.9207 12.0632 10.7676 10.693 10.6835 9.70057 31.5673 9.53526 9.28407
threshold=58.500000000000007 83.500000000000014 6.9500000000000011 37.500000000000007 1012.4500000000002 16.550000000000004 1020.85 23.750000000000004 70.500000000000014 25.550000000000004 1011.85 25.350000000000005 83.500000000000014 3.3500000000000001 19.450000000000003 1024.2500000000002 14.250000000000002 11.550000000000002 81.500000000000014 23.750000000000004 1019.85 59.500000000000007 8.5500000000000025 78.500000000000014 6.4500000000000011 73.500000000000014 18.750000000000004 13.750000000000002 24.650000000000002 90.500000000000014
decision_type=2 2 2 2 2 2 2 2 2 2 2 2 2 2 2 2 2 2 2 2 2 2 2 2 2 2 2 2 2 2
left_child=3 5 6 -1 7 24 16 23 -7 -10 -4 -11 26 -6 15 21 20 -16 19 -19 -3 -15 -23 -5 -2 -9 -12 -28 -20 -26
right_child=1 2 10 4 13 8 -8 25 9 11 12 -13 -14 14 17 -17 -18 18 28 -21 -22 22 -24 -25 29 -27 27 -29 -30 -31
leaf_value=-0.0037511450696548765 0.0013382041885488215 0.0075216035398221991 0.01244227100681785 0.0041024996905132784 -0.0048121409163088174 -0.0017809550452802506 -0.0018749823455820607 -0.0019075093742792317 0.00071290656063022087 0.010514284225301616 0.0086497714121167822 -0.0021914631226345113 0.011322090207714602 -0.0008025290478175847 -0.0042715034141133194 -0.0020948530022417457 -0.00074006240010261542 0.0008569221320006001 0.010175853417114876 -0.0032072184216030415 0.025690258129646905 0.0026450084417286249 0.0084047257193805083 0.010792708138148942 0.0075495957569910749 0.004068928281710525 -0.0017174502753693123 0.0081445542370330113 0.0011191184511202266 -0.0049814698327878479
leaf_weight=26580 1334 1199 3171 2150 3633 8008 2607 2556 7613 1202 2564 380 2411 1106 6579 2836 625 2730 452 7796 95 2393 1466 835 2525 1057 1265 2263 814 157
leaf_count=26580 1334 1199 3171 2150 3633 8008 2607 2556 7613 1202 2564 380 2411 1106 6579 2836 625 2730 452 7796 95 2393 1466 835 2525 1057 1265 2263 814 157
internal_value=0 0.00358998 0.00687018 -0.00211746 -0.00092461 0.00108566 0.00134962 0.00261557 0.000172696 0.00187415 0.0090105 0.00746233 0.0077307 -0.00170831 -0.00127746 0.00151548 0.0057303 -0.00246344 -0.00145468 -0.00215315 0.00885547 0.00357769 0.00483307 0.00597397 0.00499646 -0.000159075 0.00630935 0.00460843 0.00435264 0.00681605
internal_weight=0 37419 16200 62983 36403 21219 4526 6598 17203 9195 11674 1582 8503 29805 26172 7801 1919 18371 11792 10526 1294 4965 3859 2985 4016 3613 6092 3528 1266 2682
internal_count=100402 37419 16200 62983 36403 21219 4526 6598 17203 9195 11674 1582 8503 29805 26172 7801 1919 18371 11792 10526 1294 4965 3859 2985 4016 3613 6092 3528 1266 2682
is_linear=0
shrinkage=0.05


end of trees

feature_importances:
Pressure9am=139
MinTemp=118
Humidity9am=94
MaxTemp=73
Humidity3pm=63
Temp3pm=53
Pressure3pm=32
Temp9am=28

parameters:
[boosting: gbdt]
[objective: regression]
[metric: l1,l2]
[tree_learner: serial]
[device_type: cpu]
[data: ]
[valid: ]
[num_iterations: 20]
[learning_rate: 0.05]
[num_leaves: 31]
[num_threads: 0]
[deterministic: 0]
[force_col_wise: 0]
[force_row_wise: 0]
[histogram_pool_size: -1]
[max_depth: -1]
[min_data_in_leaf: 20]
[min_sum_hessian_in_leaf: 0.001]
[bagging_fraction: 0.8]
[pos_bagging_fraction: 1]
[neg_bagging_fraction: 1]
[bagging_freq: 5]
[bagging_seed: 3]
[feature_fraction: 0.9]
[feature_fraction_bynode: 1]
[feature_fraction_seed: 2]
[extra_trees: 0]
[extra_seed: 6]
[early_stopping_round: 0]
[first_metric_only: 0]
[max_delta_step: 0]
[lambda_l1: 0]
[lambda_l2: 0]
[linear_lambda: 0]
[min_gain_to_split: 0]
[drop_rate: 0.1]
[max_drop: 50]
[skip_drop: 0.5]
[xgboost_dart_mode: 0]
[uniform_drop: 0]
[drop_seed: 4]
[top_rate: 0.2]
[other_rate: 0.1]
[min_data_per_group: 100]
[max_cat_threshold: 32]
[cat_l2: 10]
[cat_smooth: 10]
[max_cat_to_onehot: 4]
[top_k: 20]
[monotone_constraints: ]
[monotone_constraints_method: basic]
[monotone_penalty: 0]
[feature_contri: ]
[forcedsplits_filename: ]
[refit_decay_rate: 0.9]
[cegb_tradeoff: 1]
[cegb_penalty_split: 0]
[cegb_penalty_feature_lazy: ]
[cegb_penalty_feature_coupled: ]
[path_smooth: 0]
[interaction_constraints: ]
[verbosity: 0]
[saved_feature_importance_type: 0]
[linear_tree: 0]
[max_bin: 255]
[max_bin_by_feature: ]
[min_data_in_bin: 3]
[bin_construct_sample_cnt: 200000]
[data_random_seed: 1]
[is_enable_sparse: 1]
[enable_bundle: 1]
[use_missing: 1]
[zero_as_missing: 0]
[feature_pre_filter: 1]
[pre_partition: 0]
[two_round: 0]
[header: 0]
[label_column: ]
[weight_column: ]
[group_column: ]
[ignore_column: ]
[categorical_feature: ]
[forcedbins_filename: ]
[precise_float_parser: 0]
[parser_config_file: ]
[objective_seed: 5]
[num_class: 1]
[is_unbalance: 0]
[scale_pos_weight: 1]
[sigmoid: 1]
[boost_from_average: 1]
[reg_sqrt: 0]
[alpha: 0.9]
[fair_c: 1]
[poisson_max_delta_step: 0.7]
[tweedie_variance_power: 1.5]
[lambdarank_truncation_level: 30]
[lambdarank_norm: 1]
[label_gain: ]
[eval_at: ]
[multi_error_top_k: 1]
[auc_mu_weights: ]
[num_machines: 1]
[local_listen_port: 12400]
[time_out: 120]
[machine_list_filename: ]
[machines: ]
[gpu_platform_id: -1]
[gpu_device_id: -1]
[gpu_use_dp: 0]
[num_gpu: 1]

end of parameters

pandas_categorical:[]
